{
    "layout": [
        2,
        4,
        4,
        1
    ],
    "actication": "tanh",
    "weights": [
        [
            [
                -1.006089548493908,
                -0.2624674715660964,
                -0.670732019102277,
                -1.1163996803156935
            ],
            [
                0.06350012006593939,
                0.24379988669727917,
                1.4106215999247105,
                0.4949516507825031
            ]
        ],
        [
            [
                -0.9883237811065515,
                -0.6557789386836316,
                0.2349619518041685,
                -0.3849210536585985
            ],
            [
                -0.10082699276984342,
                -0.6187907739450007,
                -0.16426705793215268,
                0.2380264892291007
            ],
            [
                0.9476960960588845,
                -1.1071905060856093,
                -0.09342876211228861,
                -0.5583050750085982
            ],
            [
                -0.7359992366980651,
                -0.14182390140440332,
                0.5262380555786496,
                -0.37213623686457087
            ]
        ],
        [
            [
                1.313902608031926
            ],
            [
                -1.0097811100393315
            ],
            [
                -0.6467283758892514
            ],
            [
                0.46698699264367455
            ]
        ]
    ],
    "biases": [
        [
            [
                0.4023306071828632,
                0.32950606712106323,
                0.1199500929311885,
                -0.1441642490458463
            ]
        ],
        [
            [
                -0.9738018966603721,
                -0.4923523982743873,
                -0.03835388750192472,
                0.3263878516297633
            ]
        ],
        [
            [
                0.12315200109122529
            ]
        ]
    ]
}